FANN_FLO_2.1
num_layers=3
learning_rate=0.700000
connection_rate=1.000000
network_type=0
learning_momentum=0.000000
training_algorithm=2
train_error_function=1
train_stop_function=0
cascade_output_change_fraction=0.010000
quickprop_decay=-0.000100
quickprop_mu=1.750000
rprop_increase_factor=1.200000
rprop_decrease_factor=0.500000
rprop_delta_min=0.000000
rprop_delta_max=50.000000
rprop_delta_zero=0.100000
cascade_output_stagnation_epochs=12
cascade_candidate_change_fraction=0.010000
cascade_candidate_stagnation_epochs=12
cascade_max_out_epochs=150
cascade_min_out_epochs=50
cascade_max_cand_epochs=150
cascade_min_cand_epochs=50
cascade_num_candidate_groups=2
bit_fail_limit=3.49999994039535522461e-01
cascade_candidate_limit=1.00000000000000000000e+03
cascade_weight_multiplier=4.00000005960464477539e-01
cascade_activation_functions_count=10
cascade_activation_functions=3 5 7 8 10 11 14 15 16 17 
cascade_activation_steepnesses_count=4
cascade_activation_steepnesses=2.50000000000000000000e-01 5.00000000000000000000e-01 7.50000000000000000000e-01 1.00000000000000000000e+00 
layer_sizes=4 10 5 
scale_included=0
neurons (num_inputs, activation_function, activation_steepness)=(0, 0, 0.00000000000000000000e+00) (0, 0, 0.00000000000000000000e+00) (0, 0, 0.00000000000000000000e+00) (0, 0, 0.00000000000000000000e+00) (4, 5, 5.00000000000000000000e-01) (4, 5, 5.00000000000000000000e-01) (4, 5, 5.00000000000000000000e-01) (4, 5, 5.00000000000000000000e-01) (4, 5, 5.00000000000000000000e-01) (4, 5, 5.00000000000000000000e-01) (4, 5, 5.00000000000000000000e-01) (4, 5, 5.00000000000000000000e-01) (4, 5, 5.00000000000000000000e-01) (0, 5, 0.00000000000000000000e+00) (10, 5, 5.00000000000000000000e-01) (10, 5, 5.00000000000000000000e-01) (10, 5, 5.00000000000000000000e-01) (10, 5, 5.00000000000000000000e-01) (0, 5, 0.00000000000000000000e+00) 
connections (connected_to_neuron, weight)=(0, -2.53492546081542968750e+01) (1, 2.94466667175292968750e+01) (2, 3.24946260452270507812e+00) (3, 1.94443547725677490234e+00) (0, 5.57050657272338867188e+00) (1, -7.15324449539184570312e+00) (2, -1.52634143829345703125e-01) (3, 7.88261353969573974609e-01) (0, 2.34436139464378356934e-01) (1, 1.50000000000000000000e+03) (2, -1.71891967773437500000e+02) (3, 1.49997875976562500000e+03) (0, 6.07860279083251953125e+00) (1, 2.04812850952148437500e+01) (2, 1.55407154560089111328e+00) (3, -1.47118508815765380859e+00) (0, 3.23368692398071289062e+00) (1, 2.13604354858398437500e+01) (2, 2.45303859710693359375e+01) (3, 5.30681133270263671875e-01) (0, 1.10788536071777343750e+00) (1, 1.36404335498809814453e+00) (2, -2.25739526748657226562e+00) (3, -2.17461675405502319336e-01) (0, -2.02837014198303222656e+00) (1, 7.19582259654998779297e-01) (2, 7.75654673576354980469e-01) (3, 3.92695486545562744141e-01) (0, -3.70548033714294433594e+00) (1, -1.49927758789062500000e+03) (2, 1.54365053176879882812e+01) (3, -2.28943271636962890625e+01) (0, 8.91010582447052001953e-01) (1, -8.44876348972320556641e-01) (2, 3.59845376014709472656e+00) (3, 4.69582349061965942383e-01) (4, 7.99353885650634765625e+00) (5, -1.36589343261718750000e+03) (6, -2.10634637624025344849e-02) (7, 1.32615188598632812500e+02) (8, 2.28748950958251953125e+01) (9, 1.09267301559448242188e+01) (10, -8.54270019531250000000e+02) (11, 4.41867208480834960938e+00) (12, -2.10532264709472656250e+01) (13, 1.44798934936523437500e+02) (4, 1.00007568359375000000e+02) (5, 4.97798347473144531250e+01) (6, -5.99280655384063720703e-01) (7, -4.26809539794921875000e+01) (8, -8.05215148925781250000e+01) (9, -2.30311019897460937500e+02) (10, 9.77427291870117187500e+01) (11, 1.55425047874450683594e+00) (12, 4.09074218750000000000e+02) (13, 1.22999501228332519531e+00) (4, 5.85798912048339843750e+01) (5, 5.23178215026855468750e+01) (6, -2.32725954055786132812e+00) (7, -6.63259887695312500000e+01) (8, -2.16567726135253906250e+01) (9, -7.41397023200988769531e-01) (10, -1.16524536132812500000e+02) (11, 1.63736498355865478516e+00) (12, 3.80790824890136718750e+01) (13, -3.80576944351196289062e+00) (4, -1.02317184448242187500e+02) (5, -7.39411926269531250000e+00) (6, -2.55619001388549804688e+00) (7, 1.15352844238281250000e+02) (8, 5.72048263549804687500e+01) (9, 3.92258048057556152344e-01) (10, -1.50000000000000000000e+03) (11, 2.38836812973022460938e+00) (12, 2.38754730224609375000e+01) (13, -1.82619726657867431641e+00) 
