FANN_FLO_2.1
num_layers=3
learning_rate=0.700000
connection_rate=1.000000
network_type=0
learning_momentum=0.000000
training_algorithm=2
train_error_function=1
train_stop_function=0
cascade_output_change_fraction=0.010000
quickprop_decay=-0.000100
quickprop_mu=1.750000
rprop_increase_factor=1.200000
rprop_decrease_factor=0.500000
rprop_delta_min=0.000000
rprop_delta_max=50.000000
rprop_delta_zero=0.100000
cascade_output_stagnation_epochs=12
cascade_candidate_change_fraction=0.010000
cascade_candidate_stagnation_epochs=12
cascade_max_out_epochs=150
cascade_min_out_epochs=50
cascade_max_cand_epochs=150
cascade_min_cand_epochs=50
cascade_num_candidate_groups=2
bit_fail_limit=3.49999994039535522461e-01
cascade_candidate_limit=1.00000000000000000000e+03
cascade_weight_multiplier=4.00000005960464477539e-01
cascade_activation_functions_count=10
cascade_activation_functions=3 5 7 8 10 11 14 15 16 17 
cascade_activation_steepnesses_count=4
cascade_activation_steepnesses=2.50000000000000000000e-01 5.00000000000000000000e-01 7.50000000000000000000e-01 1.00000000000000000000e+00 
layer_sizes=4 10 5 
scale_included=0
neurons (num_inputs, activation_function, activation_steepness)=(0, 0, 0.00000000000000000000e+00) (0, 0, 0.00000000000000000000e+00) (0, 0, 0.00000000000000000000e+00) (0, 0, 0.00000000000000000000e+00) (4, 5, 5.00000000000000000000e-01) (4, 5, 5.00000000000000000000e-01) (4, 5, 5.00000000000000000000e-01) (4, 5, 5.00000000000000000000e-01) (4, 5, 5.00000000000000000000e-01) (4, 5, 5.00000000000000000000e-01) (4, 5, 5.00000000000000000000e-01) (4, 5, 5.00000000000000000000e-01) (4, 5, 5.00000000000000000000e-01) (0, 5, 0.00000000000000000000e+00) (10, 5, 5.00000000000000000000e-01) (10, 5, 5.00000000000000000000e-01) (10, 5, 5.00000000000000000000e-01) (10, 5, 5.00000000000000000000e-01) (0, 5, 0.00000000000000000000e+00) 
connections (connected_to_neuron, weight)=(0, 3.04531812667846679688e+00) (1, -3.46473288536071777344e+00) (2, 1.18054008483886718750e+00) (3, 1.06896984577178955078e+00) (0, 1.49999792480468750000e+03) (1, 1.49951428222656250000e+03) (2, -2.75255908966064453125e+01) (3, 1.49999792480468750000e+03) (0, -1.39247541427612304688e+01) (1, -1.02713088989257812500e+01) (2, -8.89553487300872802734e-01) (3, 1.52936801314353942871e-01) (0, 6.40422105789184570312e+00) (1, -2.44542407989501953125e+00) (2, 9.84467887878417968750e+00) (3, 1.38480198383331298828e+00) (0, -3.25648956298828125000e+01) (1, 2.67996158599853515625e+01) (2, 3.93366169929504394531e+00) (3, 2.03524455428123474121e-01) (0, -5.69892978668212890625e+00) (1, -2.23429965972900390625e+01) (2, 2.87360344082117080688e-02) (3, 1.81555259227752685547e+00) (0, -1.17405052185058593750e+01) (1, 1.26481044292449951172e+00) (2, 4.21511077880859375000e+00) (3, 2.19860434532165527344e+00) (0, 1.47031679153442382812e+01) (1, 1.49951428222656250000e+03) (2, -1.42386901378631591797e+00) (3, 3.66016387939453125000e+00) (0, 2.34399700164794921875e+01) (1, 1.49951428222656250000e+03) (2, -1.44993383789062500000e+03) (3, 1.49999792480468750000e+03) (4, -6.33967773437500000000e+02) (5, 9.25428485870361328125e+00) (6, -1.28808334350585937500e+02) (7, 1.06178344726562500000e+02) (8, 1.72868366241455078125e+01) (9, -5.90230484008789062500e+01) (10, -4.14122276306152343750e+01) (11, 9.46867561340332031250e+00) (12, 9.10861587524414062500e+00) (13, 9.00781440734863281250e+00) (4, 1.06369829177856445312e+01) (5, -8.18633615970611572266e-01) (6, 4.15647659301757812500e+01) (7, -2.55704803466796875000e+01) (8, -5.67751922607421875000e+01) (9, 1.17522449493408203125e+01) (10, 1.84804977416992187500e+02) (11, -7.05230057239532470703e-01) (12, -7.28043496608734130859e-01) (13, -4.20417726039886474609e-01) (4, -1.02447242736816406250e+01) (5, -4.32781028747558593750e+00) (6, 1.52251756191253662109e+00) (7, -6.43487014770507812500e+01) (8, -5.33066673278808593750e+01) (9, 1.14668722152709960938e+01) (10, 1.00502365112304687500e+02) (11, -9.83033359050750732422e-01) (12, -2.95213794708251953125e+00) (13, -4.68917894363403320312e+00) (4, -1.04700462341308593750e+02) (5, -1.65367279052734375000e+01) (6, 5.36703729629516601562e+00) (7, 2.04237426757812500000e+02) (8, -9.86672592163085937500e+00) (9, 7.11076498031616210938e+00) (10, -5.37476257324218750000e+02) (11, -1.13378744125366210938e+01) (12, -1.64316291809082031250e+01) (13, -1.65536022186279296875e+01) 
