FANN_FLO_2.1
num_layers=3
learning_rate=0.700000
connection_rate=1.000000
network_type=0
learning_momentum=0.000000
training_algorithm=2
train_error_function=1
train_stop_function=0
cascade_output_change_fraction=0.010000
quickprop_decay=-0.000100
quickprop_mu=1.750000
rprop_increase_factor=1.200000
rprop_decrease_factor=0.500000
rprop_delta_min=0.000000
rprop_delta_max=50.000000
rprop_delta_zero=0.100000
cascade_output_stagnation_epochs=12
cascade_candidate_change_fraction=0.010000
cascade_candidate_stagnation_epochs=12
cascade_max_out_epochs=150
cascade_min_out_epochs=50
cascade_max_cand_epochs=150
cascade_min_cand_epochs=50
cascade_num_candidate_groups=2
bit_fail_limit=3.49999994039535522461e-01
cascade_candidate_limit=1.00000000000000000000e+03
cascade_weight_multiplier=4.00000005960464477539e-01
cascade_activation_functions_count=10
cascade_activation_functions=3 5 7 8 10 11 14 15 16 17 
cascade_activation_steepnesses_count=4
cascade_activation_steepnesses=2.50000000000000000000e-01 5.00000000000000000000e-01 7.50000000000000000000e-01 1.00000000000000000000e+00 
layer_sizes=4 10 6 
scale_included=0
neurons (num_inputs, activation_function, activation_steepness)=(0, 0, 0.00000000000000000000e+00) (0, 0, 0.00000000000000000000e+00) (0, 0, 0.00000000000000000000e+00) (0, 0, 0.00000000000000000000e+00) (4, 5, 5.00000000000000000000e-01) (4, 5, 5.00000000000000000000e-01) (4, 5, 5.00000000000000000000e-01) (4, 5, 5.00000000000000000000e-01) (4, 5, 5.00000000000000000000e-01) (4, 5, 5.00000000000000000000e-01) (4, 5, 5.00000000000000000000e-01) (4, 5, 5.00000000000000000000e-01) (4, 5, 5.00000000000000000000e-01) (0, 5, 0.00000000000000000000e+00) (10, 5, 5.00000000000000000000e-01) (10, 5, 5.00000000000000000000e-01) (10, 5, 5.00000000000000000000e-01) (10, 5, 5.00000000000000000000e-01) (10, 5, 5.00000000000000000000e-01) (0, 5, 0.00000000000000000000e+00) 
connections (connected_to_neuron, weight)=(0, -5.63489757478237152100e-02) (1, -6.38279467821121215820e-02) (2, 2.16733627021312713623e-02) (3, -6.42833262681961059570e-02) (0, -4.22248244285583496094e-02) (1, 6.84729292988777160645e-02) (2, 1.88116859644651412964e-02) (3, -9.91629585623741149902e-02) (0, 3.77485007047653198242e-02) (1, -9.51210558414459228516e-02) (2, -1.93432532250881195068e-02) (3, -4.64781001210212707520e-02) (0, 3.01317945122718811035e-02) (1, -5.76720796525478363037e-02) (2, 9.48987454175949096680e-02) (3, 2.70979404449462890625e-02) (0, -9.36012268066406250000e-02) (1, 7.53579568117856979370e-03) (2, -7.55031853914260864258e-02) (3, 3.41509953141212463379e-02) (0, 4.28817458450794219971e-02) (1, -1.03190615773200988770e-02) (2, -6.57834187150001525879e-02) (3, 4.56182397902011871338e-02) (0, 8.94187465310096740723e-02) (1, -3.62818092107772827148e-02) (2, -4.44834455847740173340e-02) (3, 3.07093150913715362549e-02) (0, 8.68178680539131164551e-02) (1, 1.98033731430768966675e-02) (2, 6.56245276331901550293e-02) (3, -6.95311054587364196777e-02) (0, 5.59754259884357452393e-02) (1, -1.27021139487624168396e-02) (2, -3.38144302368164062500e-02) (3, -8.62494036555290222168e-02) (4, -4.42291907966136932373e-02) (5, 8.49972590804100036621e-02) (6, -8.54123607277870178223e-02) (7, 9.35193151235580444336e-02) (8, 8.98762047290802001953e-02) (9, -4.75561246275901794434e-03) (10, -5.29587902128696441650e-02) (11, 2.00079958885908126831e-02) (12, 3.75723093748092651367e-02) (13, -5.80600462853908538818e-02) (4, -5.28940632939338684082e-02) (5, 4.39710877835750579834e-02) (6, 4.94757480919361114502e-02) (7, -2.83972471952438354492e-02) (8, -2.18779202550649642944e-02) (9, -7.64250615611672401428e-03) (10, 6.12836927175521850586e-02) (11, 1.23386653140187263489e-02) (12, -6.20242692530155181885e-02) (13, 5.07024340331554412842e-02) (4, 7.60568529367446899414e-02) (5, -6.50771241635084152222e-03) (6, -1.85882523655891418457e-02) (7, 6.28747195005416870117e-02) (8, -8.67043435573577880859e-02) (9, -5.29637262225151062012e-02) (10, 9.33436155319213867188e-02) (11, 6.92710876464843750000e-02) (12, 3.43341603875160217285e-02) (13, -4.04708161950111389160e-02) (4, 8.30216854810714721680e-02) (5, 9.01049748063087463379e-02) (6, -5.54735586047172546387e-02) (7, 9.76093262434005737305e-02) (8, 8.36242809891700744629e-02) (9, -6.55973553657531738281e-02) (10, -7.14628584682941436768e-03) (11, -6.93345069885253906250e-02) (12, 5.44106401503086090088e-02) (13, -6.95739760994911193848e-02) (4, -2.73945536464452743530e-02) (5, -9.84834283590316772461e-02) (6, 7.43971094489097595215e-02) (7, -7.79188051819801330566e-02) (8, -2.68806703388690948486e-02) (9, -4.74808104336261749268e-02) (10, 1.44386896863579750061e-02) (11, -6.55969753861427307129e-02) (12, 6.48578554391860961914e-02) (13, 5.24144209921360015869e-02) 
